Language model created by QuickLM on Wed Dec 16 10:29:12 EST 2020
Copyright (c) 1996-2010 Carnegie Mellon University and Alexander I. Rudnicky

The model is in standard ARPA format, designed by Doug Paul while he was at MITRE.

The code that was used to produce this language model is available in Open Source.
Please visit http://www.speech.cs.cmu.edu/tools/ for more information

The (fixed) discount mass is 0.5. The backoffs are computed using the ratio method.
This model based on a corpus of 118 sentences and 120 words

\data\
ngram 1=120
ngram 2=236
ngram 3=118

\1-grams:
-0.7782 </s> -0.3010
-0.7782 <s> -0.2218
-2.8500 A -0.2218
-2.8500 ABOUT -0.2218
-2.8500 ALEXA -0.2218
-2.8500 ALICE -0.2218
-2.8500 AM -0.2218
-2.8500 ANIMAL -0.2218
-2.8500 ARE -0.2218
-2.8500 ARTICLE -0.2218
-2.8500 BAD -0.2218
-2.8500 BENDER -0.2218
-2.8500 BIRTH -0.2218
-2.8500 BIRTHDATE -0.2218
-2.8500 BLUE -0.2218
-2.8500 BODY -0.2218
-2.8500 BORN -0.2218
-2.8500 BYE -0.2218
-2.8500 CAN -0.2218
-2.8500 COLOR -0.2218
-2.8500 CONFIGURATION -0.2218
-2.8500 CONFIGURE -0.2218
-2.8500 CORTANA -0.2218
-2.8500 CRUEL -0.2218
-2.8500 DATE -0.2218
-2.8500 DECREASE -0.2218
-2.8500 DEFAULT -0.2218
-2.8500 DISABLE -0.2218
-2.8500 DO -0.2218
-2.8500 EIGHT -0.2218
-2.8500 ENABLE -0.2218
-2.8500 EVIL -0.2218
-2.8500 EXIT -0.2218
-2.8500 FAVORITE -0.2218
-2.8500 FEEL -0.2218
-2.8500 FEELING -0.2218
-2.8500 FIVE -0.2218
-2.8500 FOUR -0.2218
-2.8500 FROM -0.2218
-2.8500 GOOD -0.2218
-2.8500 GREAT -0.2218
-2.8500 GREEN -0.2218
-2.8500 HELLO -0.2218
-2.8500 HEY -0.2218
-2.8500 HI -0.2218
-2.8500 HIGHER -0.2218
-2.8500 HOW -0.2218
-2.8500 I -0.2218
-2.8500 I'M -0.2218
-2.8500 INCREASE -0.2218
-2.8500 IS -0.2218
-2.8500 LAUNCH -0.2218
-2.8500 LIGHT -0.2218
-2.8500 LIVE -0.2218
-2.8500 LOUD -0.2218
-2.8500 LOUDER -0.2218
-2.8500 LOWER -0.2218
-2.8500 MAGNET -0.2218
-2.8500 MERRY -0.2218
-2.8500 MODE -0.2218
-2.8500 MUSIC -0.2218
-2.8500 NEW -0.2218
-2.8500 NEWS -0.2218
-2.8500 NEXT -0.2218
-2.8500 NINE -0.2218
-2.8500 NORMAL -0.2218
-2.8500 OF -0.2218
-2.8500 OFF -0.2218
-2.8500 OH -0.2218
-2.8500 ON -0.2218
-2.8500 ONE -0.2218
-2.8500 PAUSE -0.2218
-2.8500 PLAYER -0.2218
-2.8500 PLEASE -0.2218
-2.8500 POINT -0.2218
-2.8500 PROGRAM -0.2218
-2.8500 QUIET -0.2218
-2.8500 QUIETER -0.2218
-2.8500 QUIT -0.2218
-2.8500 RADIO -0.2218
-2.8500 READ -0.2218
-2.8500 READING -0.2218
-2.8500 REBOOT -0.2218
-2.8500 RED -0.2218
-2.8500 SAD -0.2218
-2.8500 SET -0.2218
-2.8500 SEVEN -0.2218
-2.8500 SHUTDOWN -0.2218
-2.8500 SING -0.2218
-2.8500 SIRI -0.2218
-2.8500 SIX -0.2218
-2.8500 SLEEP -0.2218
-2.8500 SLEEPING -0.2218
-2.8500 SO -0.2218
-2.8500 SONG -0.2218
-2.8500 START -0.2218
-2.8500 STATION -0.2218
-2.8500 STOP -0.2218
-2.8500 SWEATER -0.2218
-2.8500 THE -0.2218
-2.8500 THINK -0.2218
-2.8500 THREE -0.2218
-2.8500 TO -0.2218
-2.8500 TOPIC -0.2218
-2.8500 TRACK -0.2218
-2.8500 TURN -0.2218
-2.8500 TWO -0.2218
-2.8500 VERY -0.2218
-2.8500 VOLUME -0.2218
-2.8500 WERE -0.2218
-2.8500 WHAT -0.2218
-2.8500 WHEN -0.2218
-2.8500 WHERE -0.2218
-2.8500 WHO -0.2218
-2.8500 WITHOUT -0.2218
-2.8500 XMAS -0.2218
-2.8500 YOU -0.2218
-2.8500 YOU'RE -0.2218
-2.8500 YOUR -0.2218
-2.8500 ZERO -0.2218

\2-grams:
-2.3729 <s> A 0.0000
-2.3729 <s> ABOUT 0.0000
-2.3729 <s> ALEXA 0.0000
-2.3729 <s> ALICE 0.0000
-2.3729 <s> AM 0.0000
-2.3729 <s> ANIMAL 0.0000
-2.3729 <s> ARE 0.0000
-2.3729 <s> ARTICLE 0.0000
-2.3729 <s> BAD 0.0000
-2.3729 <s> BENDER 0.0000
-2.3729 <s> BIRTH 0.0000
-2.3729 <s> BIRTHDATE 0.0000
-2.3729 <s> BLUE 0.0000
-2.3729 <s> BODY 0.0000
-2.3729 <s> BORN 0.0000
-2.3729 <s> BYE 0.0000
-2.3729 <s> CAN 0.0000
-2.3729 <s> COLOR 0.0000
-2.3729 <s> CONFIGURATION 0.0000
-2.3729 <s> CONFIGURE 0.0000
-2.3729 <s> CORTANA 0.0000
-2.3729 <s> CRUEL 0.0000
-2.3729 <s> DATE 0.0000
-2.3729 <s> DECREASE 0.0000
-2.3729 <s> DEFAULT 0.0000
-2.3729 <s> DISABLE 0.0000
-2.3729 <s> DO 0.0000
-2.3729 <s> EIGHT 0.0000
-2.3729 <s> ENABLE 0.0000
-2.3729 <s> EVIL 0.0000
-2.3729 <s> EXIT 0.0000
-2.3729 <s> FAVORITE 0.0000
-2.3729 <s> FEEL 0.0000
-2.3729 <s> FEELING 0.0000
-2.3729 <s> FIVE 0.0000
-2.3729 <s> FOUR 0.0000
-2.3729 <s> FROM 0.0000
-2.3729 <s> GOOD 0.0000
-2.3729 <s> GREAT 0.0000
-2.3729 <s> GREEN 0.0000
-2.3729 <s> HELLO 0.0000
-2.3729 <s> HEY 0.0000
-2.3729 <s> HI 0.0000
-2.3729 <s> HIGHER 0.0000
-2.3729 <s> HOW 0.0000
-2.3729 <s> I 0.0000
-2.3729 <s> I'M 0.0000
-2.3729 <s> INCREASE 0.0000
-2.3729 <s> IS 0.0000
-2.3729 <s> LAUNCH 0.0000
-2.3729 <s> LIGHT 0.0000
-2.3729 <s> LIVE 0.0000
-2.3729 <s> LOUD 0.0000
-2.3729 <s> LOUDER 0.0000
-2.3729 <s> LOWER 0.0000
-2.3729 <s> MAGNET 0.0000
-2.3729 <s> MERRY 0.0000
-2.3729 <s> MODE 0.0000
-2.3729 <s> MUSIC 0.0000
-2.3729 <s> NEW 0.0000
-2.3729 <s> NEWS 0.0000
-2.3729 <s> NEXT 0.0000
-2.3729 <s> NINE 0.0000
-2.3729 <s> NORMAL 0.0000
-2.3729 <s> OF 0.0000
-2.3729 <s> OFF 0.0000
-2.3729 <s> OH 0.0000
-2.3729 <s> ON 0.0000
-2.3729 <s> ONE 0.0000
-2.3729 <s> PAUSE 0.0000
-2.3729 <s> PLAYER 0.0000
-2.3729 <s> PLEASE 0.0000
-2.3729 <s> POINT 0.0000
-2.3729 <s> PROGRAM 0.0000
-2.3729 <s> QUIET 0.0000
-2.3729 <s> QUIETER 0.0000
-2.3729 <s> QUIT 0.0000
-2.3729 <s> RADIO 0.0000
-2.3729 <s> READ 0.0000
-2.3729 <s> READING 0.0000
-2.3729 <s> REBOOT 0.0000
-2.3729 <s> RED 0.0000
-2.3729 <s> SAD 0.0000
-2.3729 <s> SET 0.0000
-2.3729 <s> SEVEN 0.0000
-2.3729 <s> SHUTDOWN 0.0000
-2.3729 <s> SING 0.0000
-2.3729 <s> SIRI 0.0000
-2.3729 <s> SIX 0.0000
-2.3729 <s> SLEEP 0.0000
-2.3729 <s> SLEEPING 0.0000
-2.3729 <s> SO 0.0000
-2.3729 <s> SONG 0.0000
-2.3729 <s> START 0.0000
-2.3729 <s> STATION 0.0000
-2.3729 <s> STOP 0.0000
-2.3729 <s> SWEATER 0.0000
-2.3729 <s> THE 0.0000
-2.3729 <s> THINK 0.0000
-2.3729 <s> THREE 0.0000
-2.3729 <s> TO 0.0000
-2.3729 <s> TOPIC 0.0000
-2.3729 <s> TRACK 0.0000
-2.3729 <s> TURN 0.0000
-2.3729 <s> TWO 0.0000
-2.3729 <s> VERY 0.0000
-2.3729 <s> VOLUME 0.0000
-2.3729 <s> WERE 0.0000
-2.3729 <s> WHAT 0.0000
-2.3729 <s> WHEN 0.0000
-2.3729 <s> WHERE 0.0000
-2.3729 <s> WHO 0.0000
-2.3729 <s> WITHOUT 0.0000
-2.3729 <s> XMAS 0.0000
-2.3729 <s> YOU 0.0000
-2.3729 <s> YOU'RE 0.0000
-2.3729 <s> YOUR 0.0000
-2.3729 <s> ZERO 0.0000
-0.3010 A </s> -0.3010
-0.3010 ABOUT </s> -0.3010
-0.3010 ALEXA </s> -0.3010
-0.3010 ALICE </s> -0.3010
-0.3010 AM </s> -0.3010
-0.3010 ANIMAL </s> -0.3010
-0.3010 ARE </s> -0.3010
-0.3010 ARTICLE </s> -0.3010
-0.3010 BAD </s> -0.3010
-0.3010 BENDER </s> -0.3010
-0.3010 BIRTH </s> -0.3010
-0.3010 BIRTHDATE </s> -0.3010
-0.3010 BLUE </s> -0.3010
-0.3010 BODY </s> -0.3010
-0.3010 BORN </s> -0.3010
-0.3010 BYE </s> -0.3010
-0.3010 CAN </s> -0.3010
-0.3010 COLOR </s> -0.3010
-0.3010 CONFIGURATION </s> -0.3010
-0.3010 CONFIGURE </s> -0.3010
-0.3010 CORTANA </s> -0.3010
-0.3010 CRUEL </s> -0.3010
-0.3010 DATE </s> -0.3010
-0.3010 DECREASE </s> -0.3010
-0.3010 DEFAULT </s> -0.3010
-0.3010 DISABLE </s> -0.3010
-0.3010 DO </s> -0.3010
-0.3010 EIGHT </s> -0.3010
-0.3010 ENABLE </s> -0.3010
-0.3010 EVIL </s> -0.3010
-0.3010 EXIT </s> -0.3010
-0.3010 FAVORITE </s> -0.3010
-0.3010 FEEL </s> -0.3010
-0.3010 FEELING </s> -0.3010
-0.3010 FIVE </s> -0.3010
-0.3010 FOUR </s> -0.3010
-0.3010 FROM </s> -0.3010
-0.3010 GOOD </s> -0.3010
-0.3010 GREAT </s> -0.3010
-0.3010 GREEN </s> -0.3010
-0.3010 HELLO </s> -0.3010
-0.3010 HEY </s> -0.3010
-0.3010 HI </s> -0.3010
-0.3010 HIGHER </s> -0.3010
-0.3010 HOW </s> -0.3010
-0.3010 I </s> -0.3010
-0.3010 I'M </s> -0.3010
-0.3010 INCREASE </s> -0.3010
-0.3010 IS </s> -0.3010
-0.3010 LAUNCH </s> -0.3010
-0.3010 LIGHT </s> -0.3010
-0.3010 LIVE </s> -0.3010
-0.3010 LOUD </s> -0.3010
-0.3010 LOUDER </s> -0.3010
-0.3010 LOWER </s> -0.3010
-0.3010 MAGNET </s> -0.3010
-0.3010 MERRY </s> -0.3010
-0.3010 MODE </s> -0.3010
-0.3010 MUSIC </s> -0.3010
-0.3010 NEW </s> -0.3010
-0.3010 NEWS </s> -0.3010
-0.3010 NEXT </s> -0.3010
-0.3010 NINE </s> -0.3010
-0.3010 NORMAL </s> -0.3010
-0.3010 OF </s> -0.3010
-0.3010 OFF </s> -0.3010
-0.3010 OH </s> -0.3010
-0.3010 ON </s> -0.3010
-0.3010 ONE </s> -0.3010
-0.3010 PAUSE </s> -0.3010
-0.3010 PLAYER </s> -0.3010
-0.3010 PLEASE </s> -0.3010
-0.3010 POINT </s> -0.3010
-0.3010 PROGRAM </s> -0.3010
-0.3010 QUIET </s> -0.3010
-0.3010 QUIETER </s> -0.3010
-0.3010 QUIT </s> -0.3010
-0.3010 RADIO </s> -0.3010
-0.3010 READ </s> -0.3010
-0.3010 READING </s> -0.3010
-0.3010 REBOOT </s> -0.3010
-0.3010 RED </s> -0.3010
-0.3010 SAD </s> -0.3010
-0.3010 SET </s> -0.3010
-0.3010 SEVEN </s> -0.3010
-0.3010 SHUTDOWN </s> -0.3010
-0.3010 SING </s> -0.3010
-0.3010 SIRI </s> -0.3010
-0.3010 SIX </s> -0.3010
-0.3010 SLEEP </s> -0.3010
-0.3010 SLEEPING </s> -0.3010
-0.3010 SO </s> -0.3010
-0.3010 SONG </s> -0.3010
-0.3010 START </s> -0.3010
-0.3010 STATION </s> -0.3010
-0.3010 STOP </s> -0.3010
-0.3010 SWEATER </s> -0.3010
-0.3010 THE </s> -0.3010
-0.3010 THINK </s> -0.3010
-0.3010 THREE </s> -0.3010
-0.3010 TO </s> -0.3010
-0.3010 TOPIC </s> -0.3010
-0.3010 TRACK </s> -0.3010
-0.3010 TURN </s> -0.3010
-0.3010 TWO </s> -0.3010
-0.3010 VERY </s> -0.3010
-0.3010 VOLUME </s> -0.3010
-0.3010 WERE </s> -0.3010
-0.3010 WHAT </s> -0.3010
-0.3010 WHEN </s> -0.3010
-0.3010 WHERE </s> -0.3010
-0.3010 WHO </s> -0.3010
-0.3010 WITHOUT </s> -0.3010
-0.3010 XMAS </s> -0.3010
-0.3010 YOU </s> -0.3010
-0.3010 YOU'RE </s> -0.3010
-0.3010 YOUR </s> -0.3010
-0.3010 ZERO </s> -0.3010

\3-grams:
-0.3010 <s> A </s>
-0.3010 <s> ABOUT </s>
-0.3010 <s> ALEXA </s>
-0.3010 <s> ALICE </s>
-0.3010 <s> AM </s>
-0.3010 <s> ANIMAL </s>
-0.3010 <s> ARE </s>
-0.3010 <s> ARTICLE </s>
-0.3010 <s> BAD </s>
-0.3010 <s> BENDER </s>
-0.3010 <s> BIRTH </s>
-0.3010 <s> BIRTHDATE </s>
-0.3010 <s> BLUE </s>
-0.3010 <s> BODY </s>
-0.3010 <s> BORN </s>
-0.3010 <s> BYE </s>
-0.3010 <s> CAN </s>
-0.3010 <s> COLOR </s>
-0.3010 <s> CONFIGURATION </s>
-0.3010 <s> CONFIGURE </s>
-0.3010 <s> CORTANA </s>
-0.3010 <s> CRUEL </s>
-0.3010 <s> DATE </s>
-0.3010 <s> DECREASE </s>
-0.3010 <s> DEFAULT </s>
-0.3010 <s> DISABLE </s>
-0.3010 <s> DO </s>
-0.3010 <s> EIGHT </s>
-0.3010 <s> ENABLE </s>
-0.3010 <s> EVIL </s>
-0.3010 <s> EXIT </s>
-0.3010 <s> FAVORITE </s>
-0.3010 <s> FEEL </s>
-0.3010 <s> FEELING </s>
-0.3010 <s> FIVE </s>
-0.3010 <s> FOUR </s>
-0.3010 <s> FROM </s>
-0.3010 <s> GOOD </s>
-0.3010 <s> GREAT </s>
-0.3010 <s> GREEN </s>
-0.3010 <s> HELLO </s>
-0.3010 <s> HEY </s>
-0.3010 <s> HI </s>
-0.3010 <s> HIGHER </s>
-0.3010 <s> HOW </s>
-0.3010 <s> I </s>
-0.3010 <s> I'M </s>
-0.3010 <s> INCREASE </s>
-0.3010 <s> IS </s>
-0.3010 <s> LAUNCH </s>
-0.3010 <s> LIGHT </s>
-0.3010 <s> LIVE </s>
-0.3010 <s> LOUD </s>
-0.3010 <s> LOUDER </s>
-0.3010 <s> LOWER </s>
-0.3010 <s> MAGNET </s>
-0.3010 <s> MERRY </s>
-0.3010 <s> MODE </s>
-0.3010 <s> MUSIC </s>
-0.3010 <s> NEW </s>
-0.3010 <s> NEWS </s>
-0.3010 <s> NEXT </s>
-0.3010 <s> NINE </s>
-0.3010 <s> NORMAL </s>
-0.3010 <s> OF </s>
-0.3010 <s> OFF </s>
-0.3010 <s> OH </s>
-0.3010 <s> ON </s>
-0.3010 <s> ONE </s>
-0.3010 <s> PAUSE </s>
-0.3010 <s> PLAYER </s>
-0.3010 <s> PLEASE </s>
-0.3010 <s> POINT </s>
-0.3010 <s> PROGRAM </s>
-0.3010 <s> QUIET </s>
-0.3010 <s> QUIETER </s>
-0.3010 <s> QUIT </s>
-0.3010 <s> RADIO </s>
-0.3010 <s> READ </s>
-0.3010 <s> READING </s>
-0.3010 <s> REBOOT </s>
-0.3010 <s> RED </s>
-0.3010 <s> SAD </s>
-0.3010 <s> SET </s>
-0.3010 <s> SEVEN </s>
-0.3010 <s> SHUTDOWN </s>
-0.3010 <s> SING </s>
-0.3010 <s> SIRI </s>
-0.3010 <s> SIX </s>
-0.3010 <s> SLEEP </s>
-0.3010 <s> SLEEPING </s>
-0.3010 <s> SO </s>
-0.3010 <s> SONG </s>
-0.3010 <s> START </s>
-0.3010 <s> STATION </s>
-0.3010 <s> STOP </s>
-0.3010 <s> SWEATER </s>
-0.3010 <s> THE </s>
-0.3010 <s> THINK </s>
-0.3010 <s> THREE </s>
-0.3010 <s> TO </s>
-0.3010 <s> TOPIC </s>
-0.3010 <s> TRACK </s>
-0.3010 <s> TURN </s>
-0.3010 <s> TWO </s>
-0.3010 <s> VERY </s>
-0.3010 <s> VOLUME </s>
-0.3010 <s> WERE </s>
-0.3010 <s> WHAT </s>
-0.3010 <s> WHEN </s>
-0.3010 <s> WHERE </s>
-0.3010 <s> WHO </s>
-0.3010 <s> WITHOUT </s>
-0.3010 <s> XMAS </s>
-0.3010 <s> YOU </s>
-0.3010 <s> YOU'RE </s>
-0.3010 <s> YOUR </s>
-0.3010 <s> ZERO </s>

\end\
