Language model created by QuickLM on Tue Jul 30 15:52:47 EDT 2019
Copyright (c) 1996-2010 Carnegie Mellon University and Alexander I. Rudnicky

The model is in standard ARPA format, designed by Doug Paul while he was at MITRE.

The code that was used to produce this language model is available in Open Source.
Please visit http://www.speech.cs.cmu.edu/tools/ for more information

The (fixed) discount mass is 0.5. The backoffs are computed using the ratio method.
This model based on a corpus of 55 sentences and 57 words

\data\
ngram 1=57
ngram 2=110
ngram 3=55

\1-grams:
-0.7782 </s> -0.3010
-0.7782 <s> -0.2218
-2.5185 A -0.2218
-2.5185 ANIMAL -0.2218
-2.5185 ARE -0.2218
-2.5185 AWAKE -0.2218
-2.5185 BENDER -0.2218
-2.5185 BIRTH -0.2218
-2.5185 BIRTHPLACE -0.2218
-2.5185 BORN -0.2218
-2.5185 DATE -0.2218
-2.5185 DISABLE -0.2218
-2.5185 EIGHT -0.2218
-2.5185 ENABLE -0.2218
-2.5185 EXIT -0.2218
-2.5185 FAVORITE -0.2218
-2.5185 FIVE -0.2218
-2.5185 FOUR -0.2218
-2.5185 FROM -0.2218
-2.5185 GREAT -0.2218
-2.5185 HELLO -0.2218
-2.5185 HEY -0.2218
-2.5185 HI -0.2218
-2.5185 HOW -0.2218
-2.5185 IS -0.2218
-2.5185 MAGNET -0.2218
-2.5185 NEW -0.2218
-2.5185 NINE -0.2218
-2.5185 OF -0.2218
-2.5185 OH -0.2218
-2.5185 ONE -0.2218
-2.5185 POINT -0.2218
-2.5185 PROGRAM -0.2218
-2.5185 QUIT -0.2218
-2.5185 SET -0.2218
-2.5185 SEVEN -0.2218
-2.5185 SHUTDOWN -0.2218
-2.5185 SING -0.2218
-2.5185 SIX -0.2218
-2.5185 SLEEP -0.2218
-2.5185 SLEEPING -0.2218
-2.5185 SONG -0.2218
-2.5185 SWEATER -0.2218
-2.5185 THE -0.2218
-2.5185 THREE -0.2218
-2.5185 TO -0.2218
-2.5185 TWO -0.2218
-2.5185 UP -0.2218
-2.5185 WAKE -0.2218
-2.5185 WERE -0.2218
-2.5185 WHAT -0.2218
-2.5185 WHEN -0.2218
-2.5185 WHERE -0.2218
-2.5185 WHO -0.2218
-2.5185 YOU -0.2218
-2.5185 YOUR -0.2218
-2.5185 ZERO -0.2218

\2-grams:
-2.0414 <s> A 0.0000
-2.0414 <s> ANIMAL 0.0000
-2.0414 <s> ARE 0.0000
-2.0414 <s> AWAKE 0.0000
-2.0414 <s> BENDER 0.0000
-2.0414 <s> BIRTH 0.0000
-2.0414 <s> BIRTHPLACE 0.0000
-2.0414 <s> BORN 0.0000
-2.0414 <s> DATE 0.0000
-2.0414 <s> DISABLE 0.0000
-2.0414 <s> EIGHT 0.0000
-2.0414 <s> ENABLE 0.0000
-2.0414 <s> EXIT 0.0000
-2.0414 <s> FAVORITE 0.0000
-2.0414 <s> FIVE 0.0000
-2.0414 <s> FOUR 0.0000
-2.0414 <s> FROM 0.0000
-2.0414 <s> GREAT 0.0000
-2.0414 <s> HELLO 0.0000
-2.0414 <s> HEY 0.0000
-2.0414 <s> HI 0.0000
-2.0414 <s> HOW 0.0000
-2.0414 <s> IS 0.0000
-2.0414 <s> MAGNET 0.0000
-2.0414 <s> NEW 0.0000
-2.0414 <s> NINE 0.0000
-2.0414 <s> OF 0.0000
-2.0414 <s> OH 0.0000
-2.0414 <s> ONE 0.0000
-2.0414 <s> POINT 0.0000
-2.0414 <s> PROGRAM 0.0000
-2.0414 <s> QUIT 0.0000
-2.0414 <s> SET 0.0000
-2.0414 <s> SEVEN 0.0000
-2.0414 <s> SHUTDOWN 0.0000
-2.0414 <s> SING 0.0000
-2.0414 <s> SIX 0.0000
-2.0414 <s> SLEEP 0.0000
-2.0414 <s> SLEEPING 0.0000
-2.0414 <s> SONG 0.0000
-2.0414 <s> SWEATER 0.0000
-2.0414 <s> THE 0.0000
-2.0414 <s> THREE 0.0000
-2.0414 <s> TO 0.0000
-2.0414 <s> TWO 0.0000
-2.0414 <s> UP 0.0000
-2.0414 <s> WAKE 0.0000
-2.0414 <s> WERE 0.0000
-2.0414 <s> WHAT 0.0000
-2.0414 <s> WHEN 0.0000
-2.0414 <s> WHERE 0.0000
-2.0414 <s> WHO 0.0000
-2.0414 <s> YOU 0.0000
-2.0414 <s> YOUR 0.0000
-2.0414 <s> ZERO 0.0000
-0.3010 A </s> -0.3010
-0.3010 ANIMAL </s> -0.3010
-0.3010 ARE </s> -0.3010
-0.3010 AWAKE </s> -0.3010
-0.3010 BENDER </s> -0.3010
-0.3010 BIRTH </s> -0.3010
-0.3010 BIRTHPLACE </s> -0.3010
-0.3010 BORN </s> -0.3010
-0.3010 DATE </s> -0.3010
-0.3010 DISABLE </s> -0.3010
-0.3010 EIGHT </s> -0.3010
-0.3010 ENABLE </s> -0.3010
-0.3010 EXIT </s> -0.3010
-0.3010 FAVORITE </s> -0.3010
-0.3010 FIVE </s> -0.3010
-0.3010 FOUR </s> -0.3010
-0.3010 FROM </s> -0.3010
-0.3010 GREAT </s> -0.3010
-0.3010 HELLO </s> -0.3010
-0.3010 HEY </s> -0.3010
-0.3010 HI </s> -0.3010
-0.3010 HOW </s> -0.3010
-0.3010 IS </s> -0.3010
-0.3010 MAGNET </s> -0.3010
-0.3010 NEW </s> -0.3010
-0.3010 NINE </s> -0.3010
-0.3010 OF </s> -0.3010
-0.3010 OH </s> -0.3010
-0.3010 ONE </s> -0.3010
-0.3010 POINT </s> -0.3010
-0.3010 PROGRAM </s> -0.3010
-0.3010 QUIT </s> -0.3010
-0.3010 SET </s> -0.3010
-0.3010 SEVEN </s> -0.3010
-0.3010 SHUTDOWN </s> -0.3010
-0.3010 SING </s> -0.3010
-0.3010 SIX </s> -0.3010
-0.3010 SLEEP </s> -0.3010
-0.3010 SLEEPING </s> -0.3010
-0.3010 SONG </s> -0.3010
-0.3010 SWEATER </s> -0.3010
-0.3010 THE </s> -0.3010
-0.3010 THREE </s> -0.3010
-0.3010 TO </s> -0.3010
-0.3010 TWO </s> -0.3010
-0.3010 UP </s> -0.3010
-0.3010 WAKE </s> -0.3010
-0.3010 WERE </s> -0.3010
-0.3010 WHAT </s> -0.3010
-0.3010 WHEN </s> -0.3010
-0.3010 WHERE </s> -0.3010
-0.3010 WHO </s> -0.3010
-0.3010 YOU </s> -0.3010
-0.3010 YOUR </s> -0.3010
-0.3010 ZERO </s> -0.3010

\3-grams:
-0.3010 <s> A </s>
-0.3010 <s> ANIMAL </s>
-0.3010 <s> ARE </s>
-0.3010 <s> AWAKE </s>
-0.3010 <s> BENDER </s>
-0.3010 <s> BIRTH </s>
-0.3010 <s> BIRTHPLACE </s>
-0.3010 <s> BORN </s>
-0.3010 <s> DATE </s>
-0.3010 <s> DISABLE </s>
-0.3010 <s> EIGHT </s>
-0.3010 <s> ENABLE </s>
-0.3010 <s> EXIT </s>
-0.3010 <s> FAVORITE </s>
-0.3010 <s> FIVE </s>
-0.3010 <s> FOUR </s>
-0.3010 <s> FROM </s>
-0.3010 <s> GREAT </s>
-0.3010 <s> HELLO </s>
-0.3010 <s> HEY </s>
-0.3010 <s> HI </s>
-0.3010 <s> HOW </s>
-0.3010 <s> IS </s>
-0.3010 <s> MAGNET </s>
-0.3010 <s> NEW </s>
-0.3010 <s> NINE </s>
-0.3010 <s> OF </s>
-0.3010 <s> OH </s>
-0.3010 <s> ONE </s>
-0.3010 <s> POINT </s>
-0.3010 <s> PROGRAM </s>
-0.3010 <s> QUIT </s>
-0.3010 <s> SET </s>
-0.3010 <s> SEVEN </s>
-0.3010 <s> SHUTDOWN </s>
-0.3010 <s> SING </s>
-0.3010 <s> SIX </s>
-0.3010 <s> SLEEP </s>
-0.3010 <s> SLEEPING </s>
-0.3010 <s> SONG </s>
-0.3010 <s> SWEATER </s>
-0.3010 <s> THE </s>
-0.3010 <s> THREE </s>
-0.3010 <s> TO </s>
-0.3010 <s> TWO </s>
-0.3010 <s> UP </s>
-0.3010 <s> WAKE </s>
-0.3010 <s> WERE </s>
-0.3010 <s> WHAT </s>
-0.3010 <s> WHEN </s>
-0.3010 <s> WHERE </s>
-0.3010 <s> WHO </s>
-0.3010 <s> YOU </s>
-0.3010 <s> YOUR </s>
-0.3010 <s> ZERO </s>

\end\
