Language model created by QuickLM on Sun Aug 18 08:23:42 EDT 2019
Copyright (c) 1996-2010 Carnegie Mellon University and Alexander I. Rudnicky

The model is in standard ARPA format, designed by Doug Paul while he was at MITRE.

The code that was used to produce this language model is available in Open Source.
Please visit http://www.speech.cs.cmu.edu/tools/ for more information

The (fixed) discount mass is 0.5. The backoffs are computed using the ratio method.
This model based on a corpus of 24 sentences and 26 words

\data\
ngram 1=26
ngram 2=48
ngram 3=24

\1-grams:
-0.7782 </s> -0.3010
-0.7782 <s> -0.2218
-2.1584 DISABLE -0.2218
-2.1584 EIGHT -0.2218
-2.1584 ENABLE -0.2218
-2.1584 EXIT -0.2218
-2.1584 FIVE -0.2218
-2.1584 FOUR -0.2218
-2.1584 MAGNET -0.2218
-2.1584 NINE -0.2218
-2.1584 OH -0.2218
-2.1584 ONE -0.2218
-2.1584 POINT -0.2218
-2.1584 PROGRAM -0.2218
-2.1584 QUIT -0.2218
-2.1584 SET -0.2218
-2.1584 SEVEN -0.2218
-2.1584 SHUTDOWN -0.2218
-2.1584 SIX -0.2218
-2.1584 SLEEP -0.2218
-2.1584 SLEEPING -0.2218
-2.1584 THE -0.2218
-2.1584 THREE -0.2218
-2.1584 TO -0.2218
-2.1584 TWO -0.2218
-2.1584 ZERO -0.2218

\2-grams:
-1.6812 <s> DISABLE 0.0000
-1.6812 <s> EIGHT 0.0000
-1.6812 <s> ENABLE 0.0000
-1.6812 <s> EXIT 0.0000
-1.6812 <s> FIVE 0.0000
-1.6812 <s> FOUR 0.0000
-1.6812 <s> MAGNET 0.0000
-1.6812 <s> NINE 0.0000
-1.6812 <s> OH 0.0000
-1.6812 <s> ONE 0.0000
-1.6812 <s> POINT 0.0000
-1.6812 <s> PROGRAM 0.0000
-1.6812 <s> QUIT 0.0000
-1.6812 <s> SET 0.0000
-1.6812 <s> SEVEN 0.0000
-1.6812 <s> SHUTDOWN 0.0000
-1.6812 <s> SIX 0.0000
-1.6812 <s> SLEEP 0.0000
-1.6812 <s> SLEEPING 0.0000
-1.6812 <s> THE 0.0000
-1.6812 <s> THREE 0.0000
-1.6812 <s> TO 0.0000
-1.6812 <s> TWO 0.0000
-1.6812 <s> ZERO 0.0000
-0.3010 DISABLE </s> -0.3010
-0.3010 EIGHT </s> -0.3010
-0.3010 ENABLE </s> -0.3010
-0.3010 EXIT </s> -0.3010
-0.3010 FIVE </s> -0.3010
-0.3010 FOUR </s> -0.3010
-0.3010 MAGNET </s> -0.3010
-0.3010 NINE </s> -0.3010
-0.3010 OH </s> -0.3010
-0.3010 ONE </s> -0.3010
-0.3010 POINT </s> -0.3010
-0.3010 PROGRAM </s> -0.3010
-0.3010 QUIT </s> -0.3010
-0.3010 SET </s> -0.3010
-0.3010 SEVEN </s> -0.3010
-0.3010 SHUTDOWN </s> -0.3010
-0.3010 SIX </s> -0.3010
-0.3010 SLEEP </s> -0.3010
-0.3010 SLEEPING </s> -0.3010
-0.3010 THE </s> -0.3010
-0.3010 THREE </s> -0.3010
-0.3010 TO </s> -0.3010
-0.3010 TWO </s> -0.3010
-0.3010 ZERO </s> -0.3010

\3-grams:
-0.3010 <s> DISABLE </s>
-0.3010 <s> EIGHT </s>
-0.3010 <s> ENABLE </s>
-0.3010 <s> EXIT </s>
-0.3010 <s> FIVE </s>
-0.3010 <s> FOUR </s>
-0.3010 <s> MAGNET </s>
-0.3010 <s> NINE </s>
-0.3010 <s> OH </s>
-0.3010 <s> ONE </s>
-0.3010 <s> POINT </s>
-0.3010 <s> PROGRAM </s>
-0.3010 <s> QUIT </s>
-0.3010 <s> SET </s>
-0.3010 <s> SEVEN </s>
-0.3010 <s> SHUTDOWN </s>
-0.3010 <s> SIX </s>
-0.3010 <s> SLEEP </s>
-0.3010 <s> SLEEPING </s>
-0.3010 <s> THE </s>
-0.3010 <s> THREE </s>
-0.3010 <s> TO </s>
-0.3010 <s> TWO </s>
-0.3010 <s> ZERO </s>

\end\
