Language model created by QuickLM on Tue Dec 17 15:07:05 EST 2019
Copyright (c) 1996-2010 Carnegie Mellon University and Alexander I. Rudnicky

The model is in standard ARPA format, designed by Doug Paul while he was at MITRE.

The code that was used to produce this language model is available in Open Source.
Please visit http://www.speech.cs.cmu.edu/tools/ for more information

The (fixed) discount mass is 0.5. The backoffs are computed using the ratio method.
This model based on a corpus of 70 sentences and 72 words

\data\
ngram 1=72
ngram 2=140
ngram 3=70

\1-grams:
-0.7782 </s> -0.3010
-0.7782 <s> -0.2218
-2.6232 A -0.2218
-2.6232 ALICE -0.2218
-2.6232 ANIMAL -0.2218
-2.6232 ARE -0.2218
-2.6232 BENDER -0.2218
-2.6232 BIRTH -0.2218
-2.6232 BIRTHDATE -0.2218
-2.6232 BORN -0.2218
-2.6232 BYE -0.2218
-2.6232 CONFIGURATION -0.2218
-2.6232 CONFIGURE -0.2218
-2.6232 DATE -0.2218
-2.6232 DECREASE -0.2218
-2.6232 DISABLE -0.2218
-2.6232 EIGHT -0.2218
-2.6232 ENABLE -0.2218
-2.6232 EXIT -0.2218
-2.6232 FAVORITE -0.2218
-2.6232 FIVE -0.2218
-2.6232 FOUR -0.2218
-2.6232 FROM -0.2218
-2.6232 GOOD -0.2218
-2.6232 GREAT -0.2218
-2.6232 HELLO -0.2218
-2.6232 HEY -0.2218
-2.6232 HI -0.2218
-2.6232 HIGHER -0.2218
-2.6232 HOW -0.2218
-2.6232 INCREASE -0.2218
-2.6232 IS -0.2218
-2.6232 LOUDER -0.2218
-2.6232 LOWER -0.2218
-2.6232 MAGNET -0.2218
-2.6232 MUSIC -0.2218
-2.6232 NEW -0.2218
-2.6232 NEXT -0.2218
-2.6232 NINE -0.2218
-2.6232 OF -0.2218
-2.6232 OH -0.2218
-2.6232 ONE -0.2218
-2.6232 PLAYER -0.2218
-2.6232 POINT -0.2218
-2.6232 PROGRAM -0.2218
-2.6232 QUIETER -0.2218
-2.6232 QUIT -0.2218
-2.6232 RADIO -0.2218
-2.6232 SET -0.2218
-2.6232 SEVEN -0.2218
-2.6232 SHUTDOWN -0.2218
-2.6232 SING -0.2218
-2.6232 SIX -0.2218
-2.6232 SLEEP -0.2218
-2.6232 SLEEPING -0.2218
-2.6232 SONG -0.2218
-2.6232 STOP -0.2218
-2.6232 SWEATER -0.2218
-2.6232 THE -0.2218
-2.6232 THREE -0.2218
-2.6232 TO -0.2218
-2.6232 TRACK -0.2218
-2.6232 TWO -0.2218
-2.6232 VOLUME -0.2218
-2.6232 WERE -0.2218
-2.6232 WHAT -0.2218
-2.6232 WHEN -0.2218
-2.6232 WHERE -0.2218
-2.6232 WHO -0.2218
-2.6232 YOU -0.2218
-2.6232 YOUR -0.2218
-2.6232 ZERO -0.2218

\2-grams:
-2.1461 <s> A 0.0000
-2.1461 <s> ALICE 0.0000
-2.1461 <s> ANIMAL 0.0000
-2.1461 <s> ARE 0.0000
-2.1461 <s> BENDER 0.0000
-2.1461 <s> BIRTH 0.0000
-2.1461 <s> BIRTHDATE 0.0000
-2.1461 <s> BORN 0.0000
-2.1461 <s> BYE 0.0000
-2.1461 <s> CONFIGURATION 0.0000
-2.1461 <s> CONFIGURE 0.0000
-2.1461 <s> DATE 0.0000
-2.1461 <s> DECREASE 0.0000
-2.1461 <s> DISABLE 0.0000
-2.1461 <s> EIGHT 0.0000
-2.1461 <s> ENABLE 0.0000
-2.1461 <s> EXIT 0.0000
-2.1461 <s> FAVORITE 0.0000
-2.1461 <s> FIVE 0.0000
-2.1461 <s> FOUR 0.0000
-2.1461 <s> FROM 0.0000
-2.1461 <s> GOOD 0.0000
-2.1461 <s> GREAT 0.0000
-2.1461 <s> HELLO 0.0000
-2.1461 <s> HEY 0.0000
-2.1461 <s> HI 0.0000
-2.1461 <s> HIGHER 0.0000
-2.1461 <s> HOW 0.0000
-2.1461 <s> INCREASE 0.0000
-2.1461 <s> IS 0.0000
-2.1461 <s> LOUDER 0.0000
-2.1461 <s> LOWER 0.0000
-2.1461 <s> MAGNET 0.0000
-2.1461 <s> MUSIC 0.0000
-2.1461 <s> NEW 0.0000
-2.1461 <s> NEXT 0.0000
-2.1461 <s> NINE 0.0000
-2.1461 <s> OF 0.0000
-2.1461 <s> OH 0.0000
-2.1461 <s> ONE 0.0000
-2.1461 <s> PLAYER 0.0000
-2.1461 <s> POINT 0.0000
-2.1461 <s> PROGRAM 0.0000
-2.1461 <s> QUIETER 0.0000
-2.1461 <s> QUIT 0.0000
-2.1461 <s> RADIO 0.0000
-2.1461 <s> SET 0.0000
-2.1461 <s> SEVEN 0.0000
-2.1461 <s> SHUTDOWN 0.0000
-2.1461 <s> SING 0.0000
-2.1461 <s> SIX 0.0000
-2.1461 <s> SLEEP 0.0000
-2.1461 <s> SLEEPING 0.0000
-2.1461 <s> SONG 0.0000
-2.1461 <s> STOP 0.0000
-2.1461 <s> SWEATER 0.0000
-2.1461 <s> THE 0.0000
-2.1461 <s> THREE 0.0000
-2.1461 <s> TO 0.0000
-2.1461 <s> TRACK 0.0000
-2.1461 <s> TWO 0.0000
-2.1461 <s> VOLUME 0.0000
-2.1461 <s> WERE 0.0000
-2.1461 <s> WHAT 0.0000
-2.1461 <s> WHEN 0.0000
-2.1461 <s> WHERE 0.0000
-2.1461 <s> WHO 0.0000
-2.1461 <s> YOU 0.0000
-2.1461 <s> YOUR 0.0000
-2.1461 <s> ZERO 0.0000
-0.3010 A </s> -0.3010
-0.3010 ALICE </s> -0.3010
-0.3010 ANIMAL </s> -0.3010
-0.3010 ARE </s> -0.3010
-0.3010 BENDER </s> -0.3010
-0.3010 BIRTH </s> -0.3010
-0.3010 BIRTHDATE </s> -0.3010
-0.3010 BORN </s> -0.3010
-0.3010 BYE </s> -0.3010
-0.3010 CONFIGURATION </s> -0.3010
-0.3010 CONFIGURE </s> -0.3010
-0.3010 DATE </s> -0.3010
-0.3010 DECREASE </s> -0.3010
-0.3010 DISABLE </s> -0.3010
-0.3010 EIGHT </s> -0.3010
-0.3010 ENABLE </s> -0.3010
-0.3010 EXIT </s> -0.3010
-0.3010 FAVORITE </s> -0.3010
-0.3010 FIVE </s> -0.3010
-0.3010 FOUR </s> -0.3010
-0.3010 FROM </s> -0.3010
-0.3010 GOOD </s> -0.3010
-0.3010 GREAT </s> -0.3010
-0.3010 HELLO </s> -0.3010
-0.3010 HEY </s> -0.3010
-0.3010 HI </s> -0.3010
-0.3010 HIGHER </s> -0.3010
-0.3010 HOW </s> -0.3010
-0.3010 INCREASE </s> -0.3010
-0.3010 IS </s> -0.3010
-0.3010 LOUDER </s> -0.3010
-0.3010 LOWER </s> -0.3010
-0.3010 MAGNET </s> -0.3010
-0.3010 MUSIC </s> -0.3010
-0.3010 NEW </s> -0.3010
-0.3010 NEXT </s> -0.3010
-0.3010 NINE </s> -0.3010
-0.3010 OF </s> -0.3010
-0.3010 OH </s> -0.3010
-0.3010 ONE </s> -0.3010
-0.3010 PLAYER </s> -0.3010
-0.3010 POINT </s> -0.3010
-0.3010 PROGRAM </s> -0.3010
-0.3010 QUIETER </s> -0.3010
-0.3010 QUIT </s> -0.3010
-0.3010 RADIO </s> -0.3010
-0.3010 SET </s> -0.3010
-0.3010 SEVEN </s> -0.3010
-0.3010 SHUTDOWN </s> -0.3010
-0.3010 SING </s> -0.3010
-0.3010 SIX </s> -0.3010
-0.3010 SLEEP </s> -0.3010
-0.3010 SLEEPING </s> -0.3010
-0.3010 SONG </s> -0.3010
-0.3010 STOP </s> -0.3010
-0.3010 SWEATER </s> -0.3010
-0.3010 THE </s> -0.3010
-0.3010 THREE </s> -0.3010
-0.3010 TO </s> -0.3010
-0.3010 TRACK </s> -0.3010
-0.3010 TWO </s> -0.3010
-0.3010 VOLUME </s> -0.3010
-0.3010 WERE </s> -0.3010
-0.3010 WHAT </s> -0.3010
-0.3010 WHEN </s> -0.3010
-0.3010 WHERE </s> -0.3010
-0.3010 WHO </s> -0.3010
-0.3010 YOU </s> -0.3010
-0.3010 YOUR </s> -0.3010
-0.3010 ZERO </s> -0.3010

\3-grams:
-0.3010 <s> A </s>
-0.3010 <s> ALICE </s>
-0.3010 <s> ANIMAL </s>
-0.3010 <s> ARE </s>
-0.3010 <s> BENDER </s>
-0.3010 <s> BIRTH </s>
-0.3010 <s> BIRTHDATE </s>
-0.3010 <s> BORN </s>
-0.3010 <s> BYE </s>
-0.3010 <s> CONFIGURATION </s>
-0.3010 <s> CONFIGURE </s>
-0.3010 <s> DATE </s>
-0.3010 <s> DECREASE </s>
-0.3010 <s> DISABLE </s>
-0.3010 <s> EIGHT </s>
-0.3010 <s> ENABLE </s>
-0.3010 <s> EXIT </s>
-0.3010 <s> FAVORITE </s>
-0.3010 <s> FIVE </s>
-0.3010 <s> FOUR </s>
-0.3010 <s> FROM </s>
-0.3010 <s> GOOD </s>
-0.3010 <s> GREAT </s>
-0.3010 <s> HELLO </s>
-0.3010 <s> HEY </s>
-0.3010 <s> HI </s>
-0.3010 <s> HIGHER </s>
-0.3010 <s> HOW </s>
-0.3010 <s> INCREASE </s>
-0.3010 <s> IS </s>
-0.3010 <s> LOUDER </s>
-0.3010 <s> LOWER </s>
-0.3010 <s> MAGNET </s>
-0.3010 <s> MUSIC </s>
-0.3010 <s> NEW </s>
-0.3010 <s> NEXT </s>
-0.3010 <s> NINE </s>
-0.3010 <s> OF </s>
-0.3010 <s> OH </s>
-0.3010 <s> ONE </s>
-0.3010 <s> PLAYER </s>
-0.3010 <s> POINT </s>
-0.3010 <s> PROGRAM </s>
-0.3010 <s> QUIETER </s>
-0.3010 <s> QUIT </s>
-0.3010 <s> RADIO </s>
-0.3010 <s> SET </s>
-0.3010 <s> SEVEN </s>
-0.3010 <s> SHUTDOWN </s>
-0.3010 <s> SING </s>
-0.3010 <s> SIX </s>
-0.3010 <s> SLEEP </s>
-0.3010 <s> SLEEPING </s>
-0.3010 <s> SONG </s>
-0.3010 <s> STOP </s>
-0.3010 <s> SWEATER </s>
-0.3010 <s> THE </s>
-0.3010 <s> THREE </s>
-0.3010 <s> TO </s>
-0.3010 <s> TRACK </s>
-0.3010 <s> TWO </s>
-0.3010 <s> VOLUME </s>
-0.3010 <s> WERE </s>
-0.3010 <s> WHAT </s>
-0.3010 <s> WHEN </s>
-0.3010 <s> WHERE </s>
-0.3010 <s> WHO </s>
-0.3010 <s> YOU </s>
-0.3010 <s> YOUR </s>
-0.3010 <s> ZERO </s>

\end\
