Language model created by QuickLM on Sun Dec 15 15:17:00 EST 2019
Copyright (c) 1996-2010 Carnegie Mellon University and Alexander I. Rudnicky

The model is in standard ARPA format, designed by Doug Paul while he was at MITRE.

The code that was used to produce this language model is available in Open Source.
Please visit http://www.speech.cs.cmu.edu/tools/ for more information

The (fixed) discount mass is 0.5. The backoffs are computed using the ratio method.
This model based on a corpus of 63 sentences and 65 words

\data\
ngram 1=65
ngram 2=126
ngram 3=63

\1-grams:
-0.7782 </s> -0.3010
-0.7782 <s> -0.2218
-2.5775 A -0.2218
-2.5775 ALICE -0.2218
-2.5775 ANIMAL -0.2218
-2.5775 ARE -0.2218
-2.5775 BENDER -0.2218
-2.5775 BIRTH -0.2218
-2.5775 BIRTHDATE -0.2218
-2.5775 BORN -0.2218
-2.5775 BYE -0.2218
-2.5775 CONFIGURATION -0.2218
-2.5775 CONFIGURE -0.2218
-2.5775 DATE -0.2218
-2.5775 DISABLE -0.2218
-2.5775 EIGHT -0.2218
-2.5775 ENABLE -0.2218
-2.5775 EXIT -0.2218
-2.5775 FAVORITE -0.2218
-2.5775 FIVE -0.2218
-2.5775 FOUR -0.2218
-2.5775 FROM -0.2218
-2.5775 GOOD -0.2218
-2.5775 GREAT -0.2218
-2.5775 HELLO -0.2218
-2.5775 HEY -0.2218
-2.5775 HI -0.2218
-2.5775 HOW -0.2218
-2.5775 IS -0.2218
-2.5775 MAGNET -0.2218
-2.5775 MUSIC -0.2218
-2.5775 NEW -0.2218
-2.5775 NEXT -0.2218
-2.5775 NINE -0.2218
-2.5775 OF -0.2218
-2.5775 OH -0.2218
-2.5775 ONE -0.2218
-2.5775 PLAYER -0.2218
-2.5775 POINT -0.2218
-2.5775 PROGRAM -0.2218
-2.5775 QUIT -0.2218
-2.5775 RADIO -0.2218
-2.5775 SET -0.2218
-2.5775 SEVEN -0.2218
-2.5775 SHUTDOWN -0.2218
-2.5775 SING -0.2218
-2.5775 SIX -0.2218
-2.5775 SLEEP -0.2218
-2.5775 SLEEPING -0.2218
-2.5775 SONG -0.2218
-2.5775 STOP -0.2218
-2.5775 SWEATER -0.2218
-2.5775 THE -0.2218
-2.5775 THREE -0.2218
-2.5775 TO -0.2218
-2.5775 TRACK -0.2218
-2.5775 TWO -0.2218
-2.5775 WERE -0.2218
-2.5775 WHAT -0.2218
-2.5775 WHEN -0.2218
-2.5775 WHERE -0.2218
-2.5775 WHO -0.2218
-2.5775 YOU -0.2218
-2.5775 YOUR -0.2218
-2.5775 ZERO -0.2218

\2-grams:
-2.1004 <s> A 0.0000
-2.1004 <s> ALICE 0.0000
-2.1004 <s> ANIMAL 0.0000
-2.1004 <s> ARE 0.0000
-2.1004 <s> BENDER 0.0000
-2.1004 <s> BIRTH 0.0000
-2.1004 <s> BIRTHDATE 0.0000
-2.1004 <s> BORN 0.0000
-2.1004 <s> BYE 0.0000
-2.1004 <s> CONFIGURATION 0.0000
-2.1004 <s> CONFIGURE 0.0000
-2.1004 <s> DATE 0.0000
-2.1004 <s> DISABLE 0.0000
-2.1004 <s> EIGHT 0.0000
-2.1004 <s> ENABLE 0.0000
-2.1004 <s> EXIT 0.0000
-2.1004 <s> FAVORITE 0.0000
-2.1004 <s> FIVE 0.0000
-2.1004 <s> FOUR 0.0000
-2.1004 <s> FROM 0.0000
-2.1004 <s> GOOD 0.0000
-2.1004 <s> GREAT 0.0000
-2.1004 <s> HELLO 0.0000
-2.1004 <s> HEY 0.0000
-2.1004 <s> HI 0.0000
-2.1004 <s> HOW 0.0000
-2.1004 <s> IS 0.0000
-2.1004 <s> MAGNET 0.0000
-2.1004 <s> MUSIC 0.0000
-2.1004 <s> NEW 0.0000
-2.1004 <s> NEXT 0.0000
-2.1004 <s> NINE 0.0000
-2.1004 <s> OF 0.0000
-2.1004 <s> OH 0.0000
-2.1004 <s> ONE 0.0000
-2.1004 <s> PLAYER 0.0000
-2.1004 <s> POINT 0.0000
-2.1004 <s> PROGRAM 0.0000
-2.1004 <s> QUIT 0.0000
-2.1004 <s> RADIO 0.0000
-2.1004 <s> SET 0.0000
-2.1004 <s> SEVEN 0.0000
-2.1004 <s> SHUTDOWN 0.0000
-2.1004 <s> SING 0.0000
-2.1004 <s> SIX 0.0000
-2.1004 <s> SLEEP 0.0000
-2.1004 <s> SLEEPING 0.0000
-2.1004 <s> SONG 0.0000
-2.1004 <s> STOP 0.0000
-2.1004 <s> SWEATER 0.0000
-2.1004 <s> THE 0.0000
-2.1004 <s> THREE 0.0000
-2.1004 <s> TO 0.0000
-2.1004 <s> TRACK 0.0000
-2.1004 <s> TWO 0.0000
-2.1004 <s> WERE 0.0000
-2.1004 <s> WHAT 0.0000
-2.1004 <s> WHEN 0.0000
-2.1004 <s> WHERE 0.0000
-2.1004 <s> WHO 0.0000
-2.1004 <s> YOU 0.0000
-2.1004 <s> YOUR 0.0000
-2.1004 <s> ZERO 0.0000
-0.3010 A </s> -0.3010
-0.3010 ALICE </s> -0.3010
-0.3010 ANIMAL </s> -0.3010
-0.3010 ARE </s> -0.3010
-0.3010 BENDER </s> -0.3010
-0.3010 BIRTH </s> -0.3010
-0.3010 BIRTHDATE </s> -0.3010
-0.3010 BORN </s> -0.3010
-0.3010 BYE </s> -0.3010
-0.3010 CONFIGURATION </s> -0.3010
-0.3010 CONFIGURE </s> -0.3010
-0.3010 DATE </s> -0.3010
-0.3010 DISABLE </s> -0.3010
-0.3010 EIGHT </s> -0.3010
-0.3010 ENABLE </s> -0.3010
-0.3010 EXIT </s> -0.3010
-0.3010 FAVORITE </s> -0.3010
-0.3010 FIVE </s> -0.3010
-0.3010 FOUR </s> -0.3010
-0.3010 FROM </s> -0.3010
-0.3010 GOOD </s> -0.3010
-0.3010 GREAT </s> -0.3010
-0.3010 HELLO </s> -0.3010
-0.3010 HEY </s> -0.3010
-0.3010 HI </s> -0.3010
-0.3010 HOW </s> -0.3010
-0.3010 IS </s> -0.3010
-0.3010 MAGNET </s> -0.3010
-0.3010 MUSIC </s> -0.3010
-0.3010 NEW </s> -0.3010
-0.3010 NEXT </s> -0.3010
-0.3010 NINE </s> -0.3010
-0.3010 OF </s> -0.3010
-0.3010 OH </s> -0.3010
-0.3010 ONE </s> -0.3010
-0.3010 PLAYER </s> -0.3010
-0.3010 POINT </s> -0.3010
-0.3010 PROGRAM </s> -0.3010
-0.3010 QUIT </s> -0.3010
-0.3010 RADIO </s> -0.3010
-0.3010 SET </s> -0.3010
-0.3010 SEVEN </s> -0.3010
-0.3010 SHUTDOWN </s> -0.3010
-0.3010 SING </s> -0.3010
-0.3010 SIX </s> -0.3010
-0.3010 SLEEP </s> -0.3010
-0.3010 SLEEPING </s> -0.3010
-0.3010 SONG </s> -0.3010
-0.3010 STOP </s> -0.3010
-0.3010 SWEATER </s> -0.3010
-0.3010 THE </s> -0.3010
-0.3010 THREE </s> -0.3010
-0.3010 TO </s> -0.3010
-0.3010 TRACK </s> -0.3010
-0.3010 TWO </s> -0.3010
-0.3010 WERE </s> -0.3010
-0.3010 WHAT </s> -0.3010
-0.3010 WHEN </s> -0.3010
-0.3010 WHERE </s> -0.3010
-0.3010 WHO </s> -0.3010
-0.3010 YOU </s> -0.3010
-0.3010 YOUR </s> -0.3010
-0.3010 ZERO </s> -0.3010

\3-grams:
-0.3010 <s> A </s>
-0.3010 <s> ALICE </s>
-0.3010 <s> ANIMAL </s>
-0.3010 <s> ARE </s>
-0.3010 <s> BENDER </s>
-0.3010 <s> BIRTH </s>
-0.3010 <s> BIRTHDATE </s>
-0.3010 <s> BORN </s>
-0.3010 <s> BYE </s>
-0.3010 <s> CONFIGURATION </s>
-0.3010 <s> CONFIGURE </s>
-0.3010 <s> DATE </s>
-0.3010 <s> DISABLE </s>
-0.3010 <s> EIGHT </s>
-0.3010 <s> ENABLE </s>
-0.3010 <s> EXIT </s>
-0.3010 <s> FAVORITE </s>
-0.3010 <s> FIVE </s>
-0.3010 <s> FOUR </s>
-0.3010 <s> FROM </s>
-0.3010 <s> GOOD </s>
-0.3010 <s> GREAT </s>
-0.3010 <s> HELLO </s>
-0.3010 <s> HEY </s>
-0.3010 <s> HI </s>
-0.3010 <s> HOW </s>
-0.3010 <s> IS </s>
-0.3010 <s> MAGNET </s>
-0.3010 <s> MUSIC </s>
-0.3010 <s> NEW </s>
-0.3010 <s> NEXT </s>
-0.3010 <s> NINE </s>
-0.3010 <s> OF </s>
-0.3010 <s> OH </s>
-0.3010 <s> ONE </s>
-0.3010 <s> PLAYER </s>
-0.3010 <s> POINT </s>
-0.3010 <s> PROGRAM </s>
-0.3010 <s> QUIT </s>
-0.3010 <s> RADIO </s>
-0.3010 <s> SET </s>
-0.3010 <s> SEVEN </s>
-0.3010 <s> SHUTDOWN </s>
-0.3010 <s> SING </s>
-0.3010 <s> SIX </s>
-0.3010 <s> SLEEP </s>
-0.3010 <s> SLEEPING </s>
-0.3010 <s> SONG </s>
-0.3010 <s> STOP </s>
-0.3010 <s> SWEATER </s>
-0.3010 <s> THE </s>
-0.3010 <s> THREE </s>
-0.3010 <s> TO </s>
-0.3010 <s> TRACK </s>
-0.3010 <s> TWO </s>
-0.3010 <s> WERE </s>
-0.3010 <s> WHAT </s>
-0.3010 <s> WHEN </s>
-0.3010 <s> WHERE </s>
-0.3010 <s> WHO </s>
-0.3010 <s> YOU </s>
-0.3010 <s> YOUR </s>
-0.3010 <s> ZERO </s>

\end\
