Language model created by QuickLM on Thu Feb 20 14:54:28 EST 2020
Copyright (c) 1996-2010 Carnegie Mellon University and Alexander I. Rudnicky

The model is in standard ARPA format, designed by Doug Paul while he was at MITRE.

The code that was used to produce this language model is available in Open Source.
Please visit http://www.speech.cs.cmu.edu/tools/ for more information

The (fixed) discount mass is 0.5. The backoffs are computed using the ratio method.
This model based on a corpus of 84 sentences and 86 words

\data\
ngram 1=86
ngram 2=168
ngram 3=84

\1-grams:
-0.7782 </s> -0.3010
-0.7782 <s> -0.2218
-2.7024 A -0.2218
-2.7024 ABOUT -0.2218
-2.7024 ALEXA -0.2218
-2.7024 ALICE -0.2218
-2.7024 ANIMAL -0.2218
-2.7024 ARE -0.2218
-2.7024 BENDER -0.2218
-2.7024 BIRTH -0.2218
-2.7024 BIRTHDATE -0.2218
-2.7024 BODY -0.2218
-2.7024 BORN -0.2218
-2.7024 BYE -0.2218
-2.7024 CAN -0.2218
-2.7024 CONFIGURATION -0.2218
-2.7024 CONFIGURE -0.2218
-2.7024 CORTANA -0.2218
-2.7024 DATE -0.2218
-2.7024 DECREASE -0.2218
-2.7024 DISABLE -0.2218
-2.7024 DO -0.2218
-2.7024 EIGHT -0.2218
-2.7024 ENABLE -0.2218
-2.7024 EXIT -0.2218
-2.7024 FAVORITE -0.2218
-2.7024 FIVE -0.2218
-2.7024 FOUR -0.2218
-2.7024 FROM -0.2218
-2.7024 GOOD -0.2218
-2.7024 GREAT -0.2218
-2.7024 HELLO -0.2218
-2.7024 HEY -0.2218
-2.7024 HI -0.2218
-2.7024 HIGHER -0.2218
-2.7024 HOW -0.2218
-2.7024 INCREASE -0.2218
-2.7024 IS -0.2218
-2.7024 LAUNCH -0.2218
-2.7024 LIVE -0.2218
-2.7024 LOUDER -0.2218
-2.7024 LOWER -0.2218
-2.7024 MAGNET -0.2218
-2.7024 MUSIC -0.2218
-2.7024 NEW -0.2218
-2.7024 NEXT -0.2218
-2.7024 NINE -0.2218
-2.7024 OF -0.2218
-2.7024 OH -0.2218
-2.7024 ONE -0.2218
-2.7024 PAUSE -0.2218
-2.7024 PLAYER -0.2218
-2.7024 POINT -0.2218
-2.7024 PROGRAM -0.2218
-2.7024 QUIETER -0.2218
-2.7024 QUIT -0.2218
-2.7024 RADIO -0.2218
-2.7024 SET -0.2218
-2.7024 SEVEN -0.2218
-2.7024 SHUTDOWN -0.2218
-2.7024 SING -0.2218
-2.7024 SIRI -0.2218
-2.7024 SIX -0.2218
-2.7024 SLEEP -0.2218
-2.7024 SLEEPING -0.2218
-2.7024 SONG -0.2218
-2.7024 START -0.2218
-2.7024 STATION -0.2218
-2.7024 STOP -0.2218
-2.7024 SWEATER -0.2218
-2.7024 THE -0.2218
-2.7024 THINK -0.2218
-2.7024 THREE -0.2218
-2.7024 TO -0.2218
-2.7024 TRACK -0.2218
-2.7024 TWO -0.2218
-2.7024 VOLUME -0.2218
-2.7024 WERE -0.2218
-2.7024 WHAT -0.2218
-2.7024 WHEN -0.2218
-2.7024 WHERE -0.2218
-2.7024 WHO -0.2218
-2.7024 WITHOUT -0.2218
-2.7024 YOU -0.2218
-2.7024 YOUR -0.2218
-2.7024 ZERO -0.2218

\2-grams:
-2.2253 <s> A 0.0000
-2.2253 <s> ABOUT 0.0000
-2.2253 <s> ALEXA 0.0000
-2.2253 <s> ALICE 0.0000
-2.2253 <s> ANIMAL 0.0000
-2.2253 <s> ARE 0.0000
-2.2253 <s> BENDER 0.0000
-2.2253 <s> BIRTH 0.0000
-2.2253 <s> BIRTHDATE 0.0000
-2.2253 <s> BODY 0.0000
-2.2253 <s> BORN 0.0000
-2.2253 <s> BYE 0.0000
-2.2253 <s> CAN 0.0000
-2.2253 <s> CONFIGURATION 0.0000
-2.2253 <s> CONFIGURE 0.0000
-2.2253 <s> CORTANA 0.0000
-2.2253 <s> DATE 0.0000
-2.2253 <s> DECREASE 0.0000
-2.2253 <s> DISABLE 0.0000
-2.2253 <s> DO 0.0000
-2.2253 <s> EIGHT 0.0000
-2.2253 <s> ENABLE 0.0000
-2.2253 <s> EXIT 0.0000
-2.2253 <s> FAVORITE 0.0000
-2.2253 <s> FIVE 0.0000
-2.2253 <s> FOUR 0.0000
-2.2253 <s> FROM 0.0000
-2.2253 <s> GOOD 0.0000
-2.2253 <s> GREAT 0.0000
-2.2253 <s> HELLO 0.0000
-2.2253 <s> HEY 0.0000
-2.2253 <s> HI 0.0000
-2.2253 <s> HIGHER 0.0000
-2.2253 <s> HOW 0.0000
-2.2253 <s> INCREASE 0.0000
-2.2253 <s> IS 0.0000
-2.2253 <s> LAUNCH 0.0000
-2.2253 <s> LIVE 0.0000
-2.2253 <s> LOUDER 0.0000
-2.2253 <s> LOWER 0.0000
-2.2253 <s> MAGNET 0.0000
-2.2253 <s> MUSIC 0.0000
-2.2253 <s> NEW 0.0000
-2.2253 <s> NEXT 0.0000
-2.2253 <s> NINE 0.0000
-2.2253 <s> OF 0.0000
-2.2253 <s> OH 0.0000
-2.2253 <s> ONE 0.0000
-2.2253 <s> PAUSE 0.0000
-2.2253 <s> PLAYER 0.0000
-2.2253 <s> POINT 0.0000
-2.2253 <s> PROGRAM 0.0000
-2.2253 <s> QUIETER 0.0000
-2.2253 <s> QUIT 0.0000
-2.2253 <s> RADIO 0.0000
-2.2253 <s> SET 0.0000
-2.2253 <s> SEVEN 0.0000
-2.2253 <s> SHUTDOWN 0.0000
-2.2253 <s> SING 0.0000
-2.2253 <s> SIRI 0.0000
-2.2253 <s> SIX 0.0000
-2.2253 <s> SLEEP 0.0000
-2.2253 <s> SLEEPING 0.0000
-2.2253 <s> SONG 0.0000
-2.2253 <s> START 0.0000
-2.2253 <s> STATION 0.0000
-2.2253 <s> STOP 0.0000
-2.2253 <s> SWEATER 0.0000
-2.2253 <s> THE 0.0000
-2.2253 <s> THINK 0.0000
-2.2253 <s> THREE 0.0000
-2.2253 <s> TO 0.0000
-2.2253 <s> TRACK 0.0000
-2.2253 <s> TWO 0.0000
-2.2253 <s> VOLUME 0.0000
-2.2253 <s> WERE 0.0000
-2.2253 <s> WHAT 0.0000
-2.2253 <s> WHEN 0.0000
-2.2253 <s> WHERE 0.0000
-2.2253 <s> WHO 0.0000
-2.2253 <s> WITHOUT 0.0000
-2.2253 <s> YOU 0.0000
-2.2253 <s> YOUR 0.0000
-2.2253 <s> ZERO 0.0000
-0.3010 A </s> -0.3010
-0.3010 ABOUT </s> -0.3010
-0.3010 ALEXA </s> -0.3010
-0.3010 ALICE </s> -0.3010
-0.3010 ANIMAL </s> -0.3010
-0.3010 ARE </s> -0.3010
-0.3010 BENDER </s> -0.3010
-0.3010 BIRTH </s> -0.3010
-0.3010 BIRTHDATE </s> -0.3010
-0.3010 BODY </s> -0.3010
-0.3010 BORN </s> -0.3010
-0.3010 BYE </s> -0.3010
-0.3010 CAN </s> -0.3010
-0.3010 CONFIGURATION </s> -0.3010
-0.3010 CONFIGURE </s> -0.3010
-0.3010 CORTANA </s> -0.3010
-0.3010 DATE </s> -0.3010
-0.3010 DECREASE </s> -0.3010
-0.3010 DISABLE </s> -0.3010
-0.3010 DO </s> -0.3010
-0.3010 EIGHT </s> -0.3010
-0.3010 ENABLE </s> -0.3010
-0.3010 EXIT </s> -0.3010
-0.3010 FAVORITE </s> -0.3010
-0.3010 FIVE </s> -0.3010
-0.3010 FOUR </s> -0.3010
-0.3010 FROM </s> -0.3010
-0.3010 GOOD </s> -0.3010
-0.3010 GREAT </s> -0.3010
-0.3010 HELLO </s> -0.3010
-0.3010 HEY </s> -0.3010
-0.3010 HI </s> -0.3010
-0.3010 HIGHER </s> -0.3010
-0.3010 HOW </s> -0.3010
-0.3010 INCREASE </s> -0.3010
-0.3010 IS </s> -0.3010
-0.3010 LAUNCH </s> -0.3010
-0.3010 LIVE </s> -0.3010
-0.3010 LOUDER </s> -0.3010
-0.3010 LOWER </s> -0.3010
-0.3010 MAGNET </s> -0.3010
-0.3010 MUSIC </s> -0.3010
-0.3010 NEW </s> -0.3010
-0.3010 NEXT </s> -0.3010
-0.3010 NINE </s> -0.3010
-0.3010 OF </s> -0.3010
-0.3010 OH </s> -0.3010
-0.3010 ONE </s> -0.3010
-0.3010 PAUSE </s> -0.3010
-0.3010 PLAYER </s> -0.3010
-0.3010 POINT </s> -0.3010
-0.3010 PROGRAM </s> -0.3010
-0.3010 QUIETER </s> -0.3010
-0.3010 QUIT </s> -0.3010
-0.3010 RADIO </s> -0.3010
-0.3010 SET </s> -0.3010
-0.3010 SEVEN </s> -0.3010
-0.3010 SHUTDOWN </s> -0.3010
-0.3010 SING </s> -0.3010
-0.3010 SIRI </s> -0.3010
-0.3010 SIX </s> -0.3010
-0.3010 SLEEP </s> -0.3010
-0.3010 SLEEPING </s> -0.3010
-0.3010 SONG </s> -0.3010
-0.3010 START </s> -0.3010
-0.3010 STATION </s> -0.3010
-0.3010 STOP </s> -0.3010
-0.3010 SWEATER </s> -0.3010
-0.3010 THE </s> -0.3010
-0.3010 THINK </s> -0.3010
-0.3010 THREE </s> -0.3010
-0.3010 TO </s> -0.3010
-0.3010 TRACK </s> -0.3010
-0.3010 TWO </s> -0.3010
-0.3010 VOLUME </s> -0.3010
-0.3010 WERE </s> -0.3010
-0.3010 WHAT </s> -0.3010
-0.3010 WHEN </s> -0.3010
-0.3010 WHERE </s> -0.3010
-0.3010 WHO </s> -0.3010
-0.3010 WITHOUT </s> -0.3010
-0.3010 YOU </s> -0.3010
-0.3010 YOUR </s> -0.3010
-0.3010 ZERO </s> -0.3010

\3-grams:
-0.3010 <s> A </s>
-0.3010 <s> ABOUT </s>
-0.3010 <s> ALEXA </s>
-0.3010 <s> ALICE </s>
-0.3010 <s> ANIMAL </s>
-0.3010 <s> ARE </s>
-0.3010 <s> BENDER </s>
-0.3010 <s> BIRTH </s>
-0.3010 <s> BIRTHDATE </s>
-0.3010 <s> BODY </s>
-0.3010 <s> BORN </s>
-0.3010 <s> BYE </s>
-0.3010 <s> CAN </s>
-0.3010 <s> CONFIGURATION </s>
-0.3010 <s> CONFIGURE </s>
-0.3010 <s> CORTANA </s>
-0.3010 <s> DATE </s>
-0.3010 <s> DECREASE </s>
-0.3010 <s> DISABLE </s>
-0.3010 <s> DO </s>
-0.3010 <s> EIGHT </s>
-0.3010 <s> ENABLE </s>
-0.3010 <s> EXIT </s>
-0.3010 <s> FAVORITE </s>
-0.3010 <s> FIVE </s>
-0.3010 <s> FOUR </s>
-0.3010 <s> FROM </s>
-0.3010 <s> GOOD </s>
-0.3010 <s> GREAT </s>
-0.3010 <s> HELLO </s>
-0.3010 <s> HEY </s>
-0.3010 <s> HI </s>
-0.3010 <s> HIGHER </s>
-0.3010 <s> HOW </s>
-0.3010 <s> INCREASE </s>
-0.3010 <s> IS </s>
-0.3010 <s> LAUNCH </s>
-0.3010 <s> LIVE </s>
-0.3010 <s> LOUDER </s>
-0.3010 <s> LOWER </s>
-0.3010 <s> MAGNET </s>
-0.3010 <s> MUSIC </s>
-0.3010 <s> NEW </s>
-0.3010 <s> NEXT </s>
-0.3010 <s> NINE </s>
-0.3010 <s> OF </s>
-0.3010 <s> OH </s>
-0.3010 <s> ONE </s>
-0.3010 <s> PAUSE </s>
-0.3010 <s> PLAYER </s>
-0.3010 <s> POINT </s>
-0.3010 <s> PROGRAM </s>
-0.3010 <s> QUIETER </s>
-0.3010 <s> QUIT </s>
-0.3010 <s> RADIO </s>
-0.3010 <s> SET </s>
-0.3010 <s> SEVEN </s>
-0.3010 <s> SHUTDOWN </s>
-0.3010 <s> SING </s>
-0.3010 <s> SIRI </s>
-0.3010 <s> SIX </s>
-0.3010 <s> SLEEP </s>
-0.3010 <s> SLEEPING </s>
-0.3010 <s> SONG </s>
-0.3010 <s> START </s>
-0.3010 <s> STATION </s>
-0.3010 <s> STOP </s>
-0.3010 <s> SWEATER </s>
-0.3010 <s> THE </s>
-0.3010 <s> THINK </s>
-0.3010 <s> THREE </s>
-0.3010 <s> TO </s>
-0.3010 <s> TRACK </s>
-0.3010 <s> TWO </s>
-0.3010 <s> VOLUME </s>
-0.3010 <s> WERE </s>
-0.3010 <s> WHAT </s>
-0.3010 <s> WHEN </s>
-0.3010 <s> WHERE </s>
-0.3010 <s> WHO </s>
-0.3010 <s> WITHOUT </s>
-0.3010 <s> YOU </s>
-0.3010 <s> YOUR </s>
-0.3010 <s> ZERO </s>

\end\
