Language model created by QuickLM on Sun Aug 18 08:13:14 EDT 2019
Copyright (c) 1996-2010 Carnegie Mellon University and Alexander I. Rudnicky

The model is in standard ARPA format, designed by Doug Paul while he was at MITRE.

The code that was used to produce this language model is available in Open Source.
Please visit http://www.speech.cs.cmu.edu/tools/ for more information

The (fixed) discount mass is 0.5. The backoffs are computed using the ratio method.
This model based on a corpus of 30 sentences and 32 words

\data\
ngram 1=32
ngram 2=60
ngram 3=30

\1-grams:
-0.7782 </s> -0.3010
-0.7782 <s> -0.2218
-2.2553 A -0.2218
-2.2553 ANIMAL -0.2218
-2.2553 ARE -0.2218
-2.2553 BIRTH -0.2218
-2.2553 BIRTHDATE -0.2218
-2.2553 BORN -0.2218
-2.2553 BYE -0.2218
-2.2553 CONFIGURATION -0.2218
-2.2553 CONFIGURE -0.2218
-2.2553 DATE -0.2218
-2.2553 FAVORITE -0.2218
-2.2553 FROM -0.2218
-2.2553 GOOD -0.2218
-2.2553 GREAT -0.2218
-2.2553 HOW -0.2218
-2.2553 IS -0.2218
-2.2553 MAGNET -0.2218
-2.2553 NEW -0.2218
-2.2553 OF -0.2218
-2.2553 SING -0.2218
-2.2553 SONG -0.2218
-2.2553 STOP -0.2218
-2.2553 SWEATER -0.2218
-2.2553 WERE -0.2218
-2.2553 WHAT -0.2218
-2.2553 WHEN -0.2218
-2.2553 WHERE -0.2218
-2.2553 WHO -0.2218
-2.2553 YOU -0.2218
-2.2553 YOUR -0.2218

\2-grams:
-1.7782 <s> A 0.0000
-1.7782 <s> ANIMAL 0.0000
-1.7782 <s> ARE 0.0000
-1.7782 <s> BIRTH 0.0000
-1.7782 <s> BIRTHDATE 0.0000
-1.7782 <s> BORN 0.0000
-1.7782 <s> BYE 0.0000
-1.7782 <s> CONFIGURATION 0.0000
-1.7782 <s> CONFIGURE 0.0000
-1.7782 <s> DATE 0.0000
-1.7782 <s> FAVORITE 0.0000
-1.7782 <s> FROM 0.0000
-1.7782 <s> GOOD 0.0000
-1.7782 <s> GREAT 0.0000
-1.7782 <s> HOW 0.0000
-1.7782 <s> IS 0.0000
-1.7782 <s> MAGNET 0.0000
-1.7782 <s> NEW 0.0000
-1.7782 <s> OF 0.0000
-1.7782 <s> SING 0.0000
-1.7782 <s> SONG 0.0000
-1.7782 <s> STOP 0.0000
-1.7782 <s> SWEATER 0.0000
-1.7782 <s> WERE 0.0000
-1.7782 <s> WHAT 0.0000
-1.7782 <s> WHEN 0.0000
-1.7782 <s> WHERE 0.0000
-1.7782 <s> WHO 0.0000
-1.7782 <s> YOU 0.0000
-1.7782 <s> YOUR 0.0000
-0.3010 A </s> -0.3010
-0.3010 ANIMAL </s> -0.3010
-0.3010 ARE </s> -0.3010
-0.3010 BIRTH </s> -0.3010
-0.3010 BIRTHDATE </s> -0.3010
-0.3010 BORN </s> -0.3010
-0.3010 BYE </s> -0.3010
-0.3010 CONFIGURATION </s> -0.3010
-0.3010 CONFIGURE </s> -0.3010
-0.3010 DATE </s> -0.3010
-0.3010 FAVORITE </s> -0.3010
-0.3010 FROM </s> -0.3010
-0.3010 GOOD </s> -0.3010
-0.3010 GREAT </s> -0.3010
-0.3010 HOW </s> -0.3010
-0.3010 IS </s> -0.3010
-0.3010 MAGNET </s> -0.3010
-0.3010 NEW </s> -0.3010
-0.3010 OF </s> -0.3010
-0.3010 SING </s> -0.3010
-0.3010 SONG </s> -0.3010
-0.3010 STOP </s> -0.3010
-0.3010 SWEATER </s> -0.3010
-0.3010 WERE </s> -0.3010
-0.3010 WHAT </s> -0.3010
-0.3010 WHEN </s> -0.3010
-0.3010 WHERE </s> -0.3010
-0.3010 WHO </s> -0.3010
-0.3010 YOU </s> -0.3010
-0.3010 YOUR </s> -0.3010

\3-grams:
-0.3010 <s> A </s>
-0.3010 <s> ANIMAL </s>
-0.3010 <s> ARE </s>
-0.3010 <s> BIRTH </s>
-0.3010 <s> BIRTHDATE </s>
-0.3010 <s> BORN </s>
-0.3010 <s> BYE </s>
-0.3010 <s> CONFIGURATION </s>
-0.3010 <s> CONFIGURE </s>
-0.3010 <s> DATE </s>
-0.3010 <s> FAVORITE </s>
-0.3010 <s> FROM </s>
-0.3010 <s> GOOD </s>
-0.3010 <s> GREAT </s>
-0.3010 <s> HOW </s>
-0.3010 <s> IS </s>
-0.3010 <s> MAGNET </s>
-0.3010 <s> NEW </s>
-0.3010 <s> OF </s>
-0.3010 <s> SING </s>
-0.3010 <s> SONG </s>
-0.3010 <s> STOP </s>
-0.3010 <s> SWEATER </s>
-0.3010 <s> WERE </s>
-0.3010 <s> WHAT </s>
-0.3010 <s> WHEN </s>
-0.3010 <s> WHERE </s>
-0.3010 <s> WHO </s>
-0.3010 <s> YOU </s>
-0.3010 <s> YOUR </s>

\end\
